digraph Tree {
node [shape=box, style="filled, rounded", color="black", fontname=helvetica] ;
edge [fontname=helvetica] ;
0 [label="ring-number_o <= 0.78\nentropy = 1.0\nsamples = 8124\nvalue = [4208, 3916]\nclass = p", fillcolor="#fdf6f1"] ;
1 [label="cap-color_b <= 0.16\nentropy = 0.66\nsamples = 636\nvalue = [528, 108]\nclass = p", fillcolor="#ea9b61"] ;
0 -> 1 [labeldistance=2.5, labelangle=45, headlabel="True"] ;
2 [label="ring-number_t <= 0.62\nentropy = 0.61\nsamples = 564\nvalue = [480, 84]\nclass = p", fillcolor="#ea975c"] ;
1 -> 2 ;
3 [label="entropy = 0.0\nsamples = 36\nvalue = [0, 36]\nclass = e", fillcolor="#399de5"] ;
2 -> 3 ;
4 [label="cap-shape_k <= 0.99\nentropy = 0.44\nsamples = 528\nvalue = [480, 48]\nclass = p", fillcolor="#e88e4d"] ;
2 -> 4 ;
5 [label="cap-shape_b <= 0.35\nentropy = 0.55\nsamples = 380\nvalue = [332, 48]\nclass = p", fillcolor="#e99356"] ;
4 -> 5 ;
6 [label="entropy = 0.45\nsamples = 256\nvalue = [232, 24]\nclass = p", fillcolor="#e88e4d"] ;
5 -> 6 ;
7 [label="entropy = 0.71\nsamples = 124\nvalue = [100, 24]\nclass = p", fillcolor="#eb9f69"] ;
5 -> 7 ;
8 [label="entropy = 0.0\nsamples = 148\nvalue = [148, 0]\nclass = p", fillcolor="#e58139"] ;
4 -> 8 ;
9 [label="spore-print-color_r <= 0.03\nentropy = 0.92\nsamples = 72\nvalue = [48, 24]\nclass = p", fillcolor="#f2c09c"] ;
1 -> 9 ;
10 [label="entropy = 0.0\nsamples = 48\nvalue = [48, 0]\nclass = p", fillcolor="#e58139"] ;
9 -> 10 ;
11 [label="entropy = 0.0\nsamples = 24\nvalue = [0, 24]\nclass = e", fillcolor="#399de5"] ;
9 -> 11 ;
12 [label="odor_f <= 0.48\nentropy = 1.0\nsamples = 7488\nvalue = [3680, 3808]\nclass = e", fillcolor="#f8fcfe"] ;
0 -> 12 [labeldistance=2.5, labelangle=-45, headlabel="False"] ;
13 [label="stalk-color-below-ring_p <= 0.38\nentropy = 0.89\nsamples = 5328\nvalue = [3680, 1648]\nclass = p", fillcolor="#f1b992"] ;
12 -> 13 ;
14 [label="ring-type_e <= 0.97\nentropy = 0.82\nsamples = 4176\nvalue = [3104, 1072]\nclass = p", fillcolor="#eead7d"] ;
13 -> 14 ;
15 [label="habitat_p <= 0.87\nentropy = 0.65\nsamples = 2744\nvalue = [2288, 456]\nclass = p", fillcolor="#ea9a60"] ;
14 -> 15 ;
16 [label="entropy = 0.66\nsamples = 2648\nvalue = [2192, 456]\nclass = p", fillcolor="#ea9b62"] ;
15 -> 16 ;
17 [label="entropy = 0.0\nsamples = 96\nvalue = [96, 0]\nclass = p", fillcolor="#e58139"] ;
15 -> 17 ;
18 [label="habitat_p <= 0.06\nentropy = 0.99\nsamples = 1432\nvalue = [816, 616]\nclass = p", fillcolor="#f9e0ce"] ;
14 -> 18 ;
19 [label="entropy = 0.93\nsamples = 1240\nvalue = [816, 424]\nclass = p", fillcolor="#f3c2a0"] ;
18 -> 19 ;
20 [label="entropy = 0.0\nsamples = 192\nvalue = [0, 192]\nclass = e", fillcolor="#399de5"] ;
18 -> 20 ;
21 [label="bruises_f <= 0.79\nentropy = 1.0\nsamples = 1152\nvalue = [576, 576]\nclass = p", fillcolor="#ffffff"] ;
13 -> 21 ;
22 [label="entropy = 0.0\nsamples = 576\nvalue = [576, 0]\nclass = p", fillcolor="#e58139"] ;
21 -> 22 ;
23 [label="entropy = 0.0\nsamples = 576\nvalue = [0, 576]\nclass = e", fillcolor="#399de5"] ;
21 -> 23 ;
24 [label="entropy = 0.0\nsamples = 2160\nvalue = [0, 2160]\nclass = e", fillcolor="#399de5"] ;
12 -> 24 ;
}